-0.272777  0.0229425  0.289905  -0.104679  0.0832877  -0.34511  -0.235027  -0.491296  0.40455  0.167087  0.0516766  0.155669  -0.244256  -0.306862  -0.0733685  0.0878561  0.621462  -0.333904  -0.416943  0.0117994  0.0384395  0.327278  -0.292552  -0.235792  -0.0104925  -0.347747  -0.293176  0.0718001  -0.195398  -0.171426  0.129721  -0.0523265  0.135858  0.17432  0.176816  -0.259056  0.273258  0.203439  0.315808  0.388604  -0.183302  0.141299  -0.0582671  0.340994  -0.477046  0.504349  -0.382511  -0.169191  0.128034  -0.425719  0.0494572  -0.0515801  0.0221434  -0.000362683  -0.00594725  0.0875871  -0.0701991  -0.0275628  -0.227865  0.0762542  0.146176  -0.0331691  -0.0351752  0.107624  0.095642  -0.0911505  -0.461758  -0.120728  -0.026856  0.0123289  -0.150797  -0.00753022  -0.00450091  -0.0506789  0.0148842  0.0332022  0.0654945  0.00272289  0.00148768  -0.0533712  -0.0646296  -0.0647331  0.0143427  0.0455252  -0.0526945  0.139375  -0.0494933  0.151766  -0.111286  -0.0419922  0.179109  -0.276499  -0.0809171  -0.107929  -0.0906345  -0.128048  -0.0281513  0.11919  -0.184661  -4.28185  0.418843  0.355932  -0.48742  0.174191  -0.034864  0.314188  0.19615  0.531233  -0.0260317  -0.229417  -0.0727552  -0.295983  0.129688  0.308829  0.278342  -0.0248102  -0.912306  0.433593  0.284653  0.055111  0.0692987  -0.180522  0.243438  0.302676  -0.179652  0.262973  0.362669  0.0236698  0.262501  0.0502845  0.0676908  0.34498  -0.0647634  -0.126142  -0.127002  0.276725  0.113394  -0.251754  -0.267489  -0.418339  0.557236  -0.529761  0.0970241  -0.251839  0.161683  -0.359633  0.416392  0.0762628  -0.0408573  1.68018  0.50575  0.0277281  -0.599065  0.449602  0.0936384  -0.219823  0.344581  0.137729  0.318874  -0.117845  -0.342199  -0.235916  0.216034  0.146364  0.412686  0.206872  -0.0456688  0.205271  0.071087  -0.0306481  -0.0997551  0.0184023  -0.534921  -0.0729357  0.102028  0.36519  0.0866033  0.404686  0.251379  -0.0682477  -0.0267864  0.164861  0.286637  -0.23924  0.0269858  -0.0936809  0.291339  -0.0466133  0.302704  0.134867  0.22913  0.203373  0.0462277  -0.0883983  0.160059  -0.0875134  -0.121013  0.106808  0.316598  -0.678982  0.0494572  -0.0515801  0.0221434  -0.000362683  -0.00594725  0.0875871  -0.0701991  -0.0275628  -0.227865  0.0762542  0.146176  -0.0331691  -0.0351752  0.107624  0.095642  -0.0911505  -0.461758  -0.120728  -0.026856  0.0123289  -0.150797  -0.00753022  -0.00450091  -0.0506789  0.0148842  0.0332022  0.0654945  0.00272289  0.00148768  -0.0533712  -0.0646296  -0.0647331  0.0143427  0.0455252  -0.0526945  0.139375  -0.0494933  0.151766  -0.111286  -0.0419922  0.179109  -0.276499  -0.0809171  -0.107929  -0.0906345  -0.128048  -0.0281513  0.11919  -0.184661  -4.28185  0.297289  0.591174  -0.490413  0.0782598  0.0639797  0.192114  0.0775565  0.390692  0.173467  -0.23869  -0.0244437  -0.244883  -0.00787458  0.221812  0.0147557  0.179892  -0.866286  0.370241  0.261019  -0.168036  0.23331  -0.182613  0.276211  0.244346  -0.271932  0.173052  0.333943  -0.110206  0.140153  0.0958935  0.263769  0.305945  -0.114606  -0.0575761  -0.0362718  0.201695  0.260251  -0.211477  -0.298576  -0.378131  0.403976  -0.569311  0.139358  -0.0976883  0.142653  -0.234668  0.429272  -0.147932  0.0670312  2.75489  -0.36199  0.914663  0.0123261  0.0073822  -0.141023  -0.232594  -0.306416  -0.445614  0.498929  0.100982  0.274222  0.0357727  -0.633494  -0.166331  -0.120127  0.135284  -0.467646  -0.160559  -0.391639  -0.193596  0.185038  0.811492  0.664599  -0.12013  -0.475782  -0.565763  -0.0472954  -0.307118  -0.320062  -0.170808  0.378735  0.334003  -0.104355  0.332577  0.202912  -0.0247569  0.701868  0.210059  -0.127244  0.0442302  0.384457  -0.799285  -0.118414  0.24852  -0.748702  0.522222  -0.128226  -0.453125  -0.0348095  7.92594  0.0494572  -0.0515801  0.0221434  -0.000362683  -0.00594725  0.0875871  -0.0701991  -0.0275628  -0.227865  0.0762542  0.146176  -0.0331691  -0.0351752  0.107624  0.095642  -0.0911505  -0.461758  -0.120728  -0.026856  0.0123289  -0.150797  -0.00753022  -0.00450091  -0.0506789  0.0148842  0.0332022  0.0654945  0.00272289  0.00148768  -0.0533712  -0.0646296  -0.0647331  0.0143427  0.0455252  -0.0526945  0.139375  -0.0494933  0.151766  -0.111286  -0.0419922  0.179109  -0.276499  -0.0809171  -0.107929  -0.0906345  -0.128048  -0.0281513  0.11919  -0.184661  -4.28185  0.0699814  0.230456  -0.265565  0.390268  0.0659007  -0.0370745  0.115957  -0.0621657  0.218046  0.0594727  -0.175435  -0.00514561  -0.08302  0.0219267  0.486334  -0.0667513  0.0409783  0.0727022  -0.0831116  0.0905825  0.00720527  0.148325  -0.0389742  -0.0770512  0.0496695  0.0304627  0.0164745  -0.0424702  0.0170907  0.0327373  -0.0513182  0.212466  0.122725  -0.176279  0.0428957  0.0615666  0.20711  0.0134271  0.031467  0.0127705  0.166426  0.0310236  -0.087004  -0.181898  -0.176911  0.168233  -0.0813705  -0.108682  0.089423  -4.88713  -0.259383  0.256048  0.150231  0.00657028  0.193335  -0.320977  -0.25326  -0.511536  0.588545  0.170768  0.0111304  0.147192  -0.404275  -0.300469  0.117536  0.143264  0.413863  -0.370011  -0.436255  -0.0276121  0.182909  0.338289  -0.221205  -0.222306  -0.10375  -0.397769  -0.251454  0.00977203  -0.198774  -0.136178  0.27386  0.093008  0.157683  0.124777  0.240196  -0.16561  0.477851  0.165395  0.23771  0.359922  -0.052257  -0.0414418  -0.027488  0.303375  -0.677863  0.603789  -0.334027  -0.312413  0.163506  0.262384  0.0494572  -0.0515801  0.0221434  -0.000362683  -0.00594725  0.0875871  -0.0701991  -0.0275628  -0.227865  0.0762542  0.146176  -0.0331691  -0.0351752  0.107624  0.095642  -0.0911505  -0.461758  -0.120728  -0.026856  0.0123289  -0.150797  -0.00753022  -0.00450091  -0.0506789  0.0148842  0.0332022  0.0654945  0.00272289  0.00148768  -0.0533712  -0.0646296  -0.0647331  0.0143427  0.0455252  -0.0526945  0.139375  -0.0494933  0.151766  -0.111286  -0.0419922  0.179109  -0.276499  -0.0809171  -0.107929  -0.0906345  -0.128048  -0.0281513  0.11919  -0.184661  -4.28185  0.667472  -0.0620738  -0.568503  0.403762  -0.0939507  0.0262944  0.306197  0.369244  -0.0249782  -0.11189  -0.190355  -0.334871  0.33005  0.314264  0.599787  -0.0431253  -0.559602  0.319603  0.0968059  0.212837  -0.302008  -0.0332777  -0.444414  0.0591688  0.120613  0.461501  0.247753  0.457847  0.364426  -0.201453  -0.19565  0.175392  0.254715  -0.154194  -0.135868  0.111734  0.0929372  -0.0277649  0.16551  -0.104784  0.583253  -0.166054  -0.0589659  -0.246936  0.14789  -0.345795  0.00556545  0.364266  0.0603323  -5.83122  -0.413553  0.813742  -0.00716612  0.245334  -0.410562  -0.150843  0.0178596  -0.372513  0.116451  0.0864834  0.175279  0.0111359  -0.356059  -0.0521193  -0.137165  -0.189184  -0.169683  0.237441  -0.273309  -0.0889614  -0.171267  0.985712  0.943393  -0.150502  -0.299345  -0.414377  -0.0114051  -0.480887  -0.340992  0.0147708  -0.0951859  0.341955  -0.196443  0.145245  0.0172626  -0.0695963  0.376669  0.313584  -0.179744  -0.0680295  0.27343  -0.40221  -0.273575  -0.0547983  -0.231003  0.330314  -0.173129  -0.28009  -0.129906  12.7525  0.0494572  -0.0515801  0.0221434  -0.000362683  -0.00594725  0.0875871  -0.0701991  -0.0275628  -0.227865  0.0762542  0.146176  -0.0331691  -0.0351752  0.107624  0.095642  -0.0911505  -0.461758  -0.120728  -0.026856  0.0123289  -0.150797  -0.00753022  -0.00450091  -0.0506789  0.0148842  0.0332022  0.0654945  0.00272289  0.00148768  -0.0533712  -0.0646296  -0.0647331  0.0143427  0.0455252  -0.0526945  0.139375  -0.0494933  0.151766  -0.111286  -0.0419922  0.179109  -0.276499  -0.0809171  -0.107929  -0.0906345  -0.128048  -0.0281513  0.11919  -0.184661  -4.28185  0.726119  -0.183706  -0.515211  0.343692  0.0558829  0.208704  0.351144  0.589878  0.109663  -0.194853  -0.36358  -0.332996  0.456782  0.257157  0.784644  -0.151617  -0.185497  0.471068  0.147603  0.451158  -0.124551  -0.369623  -0.629293  0.255065  0.169855  0.483932  0.2427  0.507277  0.495976  -0.111408  -0.173102  0.296199  0.271607  -0.289028  -0.165652  0.136894  -0.00522837  -0.287032  0.208453  -0.180538  0.51218  0.0402205  0.0760669  -0.250918  0.160336  -0.30734  0.170388  0.369786  0.141969  -6.83478  0.120977  0.333908  -0.244106  0.23666  0.0758526  -0.146585  -0.127108  -0.0891396  0.235133  0.102571  0.0166071  -0.00562495  -0.0155811  0.00909424  0.260332  0.0332028  -0.0526478  0.0202426  -0.166281  0.0505184  -0.0191922  0.12317  -0.278252  -0.169228  0.0964404  0.0778394  0.0142367  -0.0412786  -0.0243969  -0.144105  -0.020886  0.0661822  0.123194  0.0200543  0.0476353  -0.0276493  0.197087  0.0826129  0.0851764  -0.0178215  0.187863  -0.162561  -0.18746  -0.047358  -0.17717  0.168289  -0.0850536  -0.127584  0.107129  0  0.120977  0.333908  -0.244106  0.23666  0.0758526  -0.146585  -0.127108  -0.0891396  0.235133  0.102571  0.0166071  -0.00562495  -0.0155811  0.00909424  0.260332  0.0332028  -0.0526478  0.0202426  -0.166281  0.0505184  -0.0191922  0.12317  -0.278252  -0.169228  0.0964404  0.0778394  0.0142367  -0.0412786  -0.0243969  -0.144105  -0.020886  0.0661822  0.123194  0.0200543  0.0476353  -0.0276493  0.197087  0.0826129  0.0851764  -0.0178215  0.187863  -0.162561  -0.18746  -0.047358  -0.17717  0.168289  -0.0850536  -0.127584  0.107129  0  0.120977  0.333908  -0.244106  0.23666  0.0758526  -0.146585  -0.127108  -0.0891396  0.235133  0.102571  0.0166071  -0.00562495  -0.0155811  0.00909424  0.260332  0.0332028  -0.0526478  0.0202426  -0.166281  0.0505184  -0.0191922  0.12317  -0.278252  -0.169228  0.0964404  0.0778394  0.0142367  -0.0412786  -0.0243969  -0.144105  -0.020886  0.0661822  0.123194  0.0200543  0.0476353  -0.0276493  0.197087  0.0826129  0.0851764  -0.0178215  0.187863  -0.162561  -0.18746  -0.047358  -0.17717  0.168289  -0.0850536  -0.127584  0.107129  0  0.120977  0.333908  -0.244106  0.23666  0.0758526  -0.146585  -0.127108  -0.0891396  0.235133  0.102571  0.0166071  -0.00562495  -0.0155811  0.00909424  0.260332  0.0332028  -0.0526478  0.0202426  -0.166281  0.0505184  -0.0191922  0.12317  -0.278252  -0.169228  0.0964404  0.0778394  0.0142367  -0.0412786  -0.0243969  -0.144105  -0.020886  0.0661822  0.123194  0.0200543  0.0476353  -0.0276493  0.197087  0.0826129  0.0851764  -0.0178215  0.187863  -0.162561  -0.18746  -0.047358  -0.17717  0.168289  -0.0850536  -0.127584  0.107129  0  0.120977  0.333908  -0.244106  0.23666  0.0758526  -0.146585  -0.127108  -0.0891396  0.235133  0.102571  0.0166071  -0.00562495  -0.0155811  0.00909424  0.260332  0.0332028  -0.0526478  0.0202426  -0.166281  0.0505184  -0.0191922  0.12317  -0.278252  -0.169228  0.0964404  0.0778394  0.0142367  -0.0412786  -0.0243969  -0.144105  -0.020886  0.0661822  0.123194  0.0200543  0.0476353  -0.0276493  0.197087  0.0826129  0.0851764  -0.0178215  0.187863  -0.162561  -0.18746  -0.047358  -0.17717  0.168289  -0.0850536  -0.127584  0.107129  0  0.120977  0.333908  -0.244106  0.23666  0.0758526  -0.146585  -0.127108  -0.0891396  0.235133  0.102571  0.0166071  -0.00562495  -0.0155811  0.00909424  0.260332  0.0332028  -0.0526478  0.0202426  -0.166281  0.0505184  -0.0191922  0.12317  -0.278252  -0.169228  0.0964404  0.0778394  0.0142367  -0.0412786  -0.0243969  -0.144105  -0.020886  0.0661822  0.123194  0.0200543  0.0476353  -0.0276493  0.197087  0.0826129  0.0851764  -0.0178215  0.187863  -0.162561  -0.18746  -0.047358  -0.17717  0.168289  -0.0850536  -0.127584  0.107129  0  0.120977  0.333908  -0.244106  0.23666  0.0758526  -0.146585  -0.127108  -0.0891396  0.235133  0.102571  0.0166071  -0.00562495  -0.0155811  0.00909424  0.260332  0.0332028  -0.0526478  0.0202426  -0.166281  0.0505184  -0.0191922  0.12317  -0.278252  -0.169228  0.0964404  0.0778394  0.0142367  -0.0412786  -0.0243969  -0.144105  -0.020886  0.0661822  0.123194  0.0200543  0.0476353  -0.0276493  0.197087  0.0826129  0.0851764  -0.0178215  0.187863  -0.162561  -0.18746  -0.047358  -0.17717  0.168289  -0.0850536  -0.127584  0.107129  0  0.120977  0.333908  -0.244106  0.23666  0.0758526  -0.146585  -0.127108  -0.0891396  0.235133  0.102571  0.0166071  -0.00562495  -0.0155811  0.00909424  0.260332  0.0332028  -0.0526478  0.0202426  -0.166281  0.0505184  -0.0191922  0.12317  -0.278252  -0.169228  0.0964404  0.0778394  0.0142367  -0.0412786  -0.0243969  -0.144105  -0.020886  0.0661822  0.123194  0.0200543  0.0476353  -0.0276493  0.197087  0.0826129  0.0851764  -0.0178215  0.187863  -0.162561  -0.18746  -0.047358  -0.17717  0.168289  -0.0850536  -0.127584  0.107129  0  0.120977  0.333908  -0.244106  0.23666  0.0758526  -0.146585  -0.127108  -0.0891396  0.235133  0.102571  0.0166071  -0.00562495  -0.0155811  0.00909424  0.260332  0.0332028  -0.0526478  0.0202426  -0.166281  0.0505184  -0.0191922  0.12317  -0.278252  -0.169228  0.0964404  0.0778394  0.0142367  -0.0412786  -0.0243969  -0.144105  -0.020886  0.0661822  0.123194  0.0200543  0.0476353  -0.0276493  0.197087  0.0826129  0.0851764  -0.0178215  0.187863  -0.162561  -0.18746  -0.047358  -0.17717  0.168289  -0.0850536  -0.127584  0.107129  0  0.120977  0.333908  -0.244106  0.23666  0.0758526  -0.146585  -0.127108  -0.0891396  0.235133  0.102571  0.0166071  -0.00562495  -0.0155811  0.00909424  0.260332  0.0332028  -0.0526478  0.0202426  -0.166281  0.0505184  -0.0191922  0.12317  -0.278252  -0.169228  0.0964404  0.0778394  0.0142367  -0.0412786  -0.0243969  -0.144105  -0.020886  0.0661822  0.123194  0.0200543  0.0476353  -0.0276493  0.197087  0.0826129  0.0851764  -0.0178215  0.187863  -0.162561  -0.18746  -0.047358  -0.17717  0.168289  -0.0850536  -0.127584  0.107129  0  0.120977  0.333908  -0.244106  0.23666  0.0758526  -0.146585  -0.127108  -0.0891396  0.235133  0.102571  0.0166071  -0.00562495  -0.0155811  0.00909424  0.260332  0.0332028  -0.0526478  0.0202426  -0.166281  0.0505184  -0.0191922  0.12317  -0.278252  -0.169228  0.0964404  0.0778394  0.0142367  -0.0412786  -0.0243969  -0.144105  -0.020886  0.0661822  0.123194  0.0200543  0.0476353  -0.0276493  0.197087  0.0826129  0.0851764  -0.0178215  0.187863  -0.162561  -0.18746  -0.047358  -0.17717  0.168289  -0.0850536  -0.127584  0.107129  0  0.120977  0.333908  -0.244106  0.23666  0.0758526  -0.146585  -0.127108  -0.0891396  0.235133  0.102571  0.0166071  -0.00562495  -0.0155811  0.00909424  0.260332  0.0332028  -0.0526478  0.0202426  -0.166281  0.0505184  -0.0191922  0.12317  -0.278252  -0.169228  0.0964404  0.0778394  0.0142367  -0.0412786  -0.0243969  -0.144105  -0.020886  0.0661822  0.123194  0.0200543  0.0476353  -0.0276493  0.197087  0.0826129  0.0851764  -0.0178215  0.187863  -0.162561  -0.18746  -0.047358  -0.17717  0.168289  -0.0850536  -0.127584  0.107129  0  0.120977  0.333908  -0.244106  0.23666  0.0758526  -0.146585  -0.127108  -0.0891396  0.235133  0.102571  0.0166071  -0.00562495  -0.0155811  0.00909424  0.260332  0.0332028  -0.0526478  0.0202426  -0.166281  0.0505184  -0.0191922  0.12317  -0.278252  -0.169228  0.0964404  0.0778394  0.0142367  -0.0412786  -0.0243969  -0.144105  -0.020886  0.0661822  0.123194  0.0200543  0.0476353  -0.0276493  0.197087  0.0826129  0.0851764  -0.0178215  0.187863  -0.162561  -0.18746  -0.047358  -0.17717  0.168289  -0.0850536  -0.127584  0.107129  0  0.120977  0.333908  -0.244106  0.23666  0.0758526  -0.146585  -0.127108  -0.0891396  0.235133  0.102571  0.0166071  -0.00562495  -0.0155811  0.00909424  0.260332  0.0332028  -0.0526478  0.0202426  -0.166281  0.0505184  -0.0191922  0.12317  -0.278252  -0.169228  0.0964404  0.0778394  0.0142367  -0.0412786  -0.0243969  -0.144105  -0.020886  0.0661822  0.123194  0.0200543  0.0476353  -0.0276493  0.197087  0.0826129  0.0851764  -0.0178215  0.187863  -0.162561  -0.18746  -0.047358  -0.17717  0.168289  -0.0850536  -0.127584  0.107129  0  0.333568  0.306113  -0.109353  -0.9201  0.306113  0.282554  2.27258  0.306113  0.0305607  0.954762  0.306113  -0.45838  0.976675  0.306113  -0.572385  0.380027  0.380027  0.380027  0.380027  0.380027  0.380027  0.380027  0.380027  0.380027  0.380027  0.380027  0.380027  0.380027  0.380027  -3.44165  -0.455221  -0.0302701  1.73994  1.23726  -0.0302701  1.48869  -0.0259183  -0.0302701  0.525823  -0.170151  -0.0302701  1.1095  0.342206  -0.0302701  1.12315  0.507488  0.507488  0.507488  0.507488  0.507488  0.507488  0.507488  0.507488  0.507488  0.507488  0.507488  0.507488  0.507488  0.507488  -9.15816  -1.84736  0.356897  1.55154  -0.235435  0.356897  1.26794  -0.405895  0.356897  -0.191606  -1.58418  0.356897  0.155416  0.264095  0.356897  0.343345  -0.192208  -0.192208  -0.192208  -0.192208  -0.192208  -0.192208  -0.192208  -0.192208  -0.192208  -0.192208  -0.192208  -0.192208  -0.192208  -0.192208  0.277931  1.21907  -0.80795  -3.79189  -0.86164  -0.80795  -2.9778  -1.05984  -0.80795  -0.921948  0.695697  -0.80795  -1.25877  -0.974127  -0.80795  -1.23209  -0.501717  -0.501717  -0.501717  -0.501717  -0.501717  -0.501717  -0.501717  -0.501717  -0.501717  -0.501717  -0.501717  -0.501717  -0.501717  -0.501717  14.9255  -0.455221  -0.0302701  1.73994  1.23726  -0.0302701  1.48869  -0.0259183  -0.0302701  0.525823  -0.170151  -0.0302701  1.1095  0.342206  -0.0302701  1.12315  0.507488  0.507488  0.507488  0.507488  0.507488  0.507488  0.507488  0.507488  0.507488  0.507488  0.507488  0.507488  0.507488  0.507488  -9.15816  -0.32004  0.0359661  0.0833874  -0.178156  0.0359661  0.0403411  -0.172032  0.0359661  -0.158971  -0.216084  0.0359661  -0.135585  -0.190084  0.0359661  0.0109548  -0.170614  -0.170614  -0.170614  -0.170614  -0.170614  -0.170614  -0.170614  -0.170614  -0.170614  -0.170614  -0.170614  -0.170614  -0.170614  -0.170614  -3.96936  -0.308233  0.0174578  0.103619  -0.139552  0.0174578  0.0507237  -0.234827  0.0174578  -0.167314  -0.239484  0.0174578  -0.123582  -0.234811  0.0174578  0.0270469  -0.185231  -0.185231  -0.185231  -0.185231  -0.185231  -0.185231  -0.185231  -0.185231  -0.185231  -0.185231  -0.185231  -0.185231  -0.185231  -0.185231  -3.24165  -0.455221  -0.0302701  1.73994  1.23726  -0.0302701  1.48869  -0.0259183  -0.0302701  0.525823  -0.170151  -0.0302701  1.1095  0.342206  -0.0302701  1.12315  0.507488  0.507488  0.507488  0.507488  0.507488  0.507488  0.507488  0.507488  0.507488  0.507488  0.507488  0.507488  0.507488  0.507488  -9.15816  0.677107  0.385815  0.157587  -2.00553  0.385815  -0.125814  1.93633  0.385815  -0.607519  0.595026  0.385815  -0.917769  1.97206  0.385815  -0.697657  -0.284821  -0.284821  -0.284821  -0.284821  -0.284821  -0.284821  -0.284821  -0.284821  -0.284821  -0.284821  -0.284821  -0.284821  -0.284821  -0.284821  0.641185  -0.204777  0.0177907  0.034139  -0.145782  0.0177907  -0.0210683  -0.170632  0.0177907  -0.155822  -0.155708  0.0177907  -0.130136  -0.132901  0.0177907  0.00254485  -0.163217  -0.163217  -0.163217  -0.163217  -0.163217  -0.163217  -0.163217  -0.163217  -0.163217  -0.163217  -0.163217  -0.163217  -0.163217  -0.163217  -3.30553  -0.455221  -0.0302701  1.73994  1.23726  -0.0302701  1.48869  -0.0259183  -0.0302701  0.525823  -0.170151  -0.0302701  1.1095  0.342206  -0.0302701  1.12315  0.507488  0.507488  0.507488  0.507488  0.507488  0.507488  0.507488  0.507488  0.507488  0.507488  0.507488  0.507488  0.507488  0.507488  -9.15816  -3.05679  0.176722  1.38717  -0.543757  0.176722  1.15714  -1.04407  0.176722  -0.254699  -2.28923  0.176722  0.0753679  -0.874502  0.176722  0.199172  -0.352181  -0.352181  -0.352181  -0.352181  -0.352181  -0.352181  -0.352181  -0.352181  -0.352181  -0.352181  -0.352181  -0.352181  -0.352181  -0.352181  5.76432  0.142261  -0.497338  -1.26786  0.386759  -0.497338  -1.5115  -1.81965  -0.497338  -0.332924  -0.22108  -0.497338  -0.216958  -1.81673  -0.497338  0.0327978  -0.825574  -0.825574  -0.825574  -0.825574  -0.825574  -0.825574  -0.825574  -0.825574  -0.825574  -0.825574  -0.825574  -0.825574  -0.825574  -0.825574  9.24512  -0.455221  -0.0302701  1.73994  1.23726  -0.0302701  1.48869  -0.0259183  -0.0302701  0.525823  -0.170151  -0.0302701  1.1095  0.342206  -0.0302701  1.12315  0.507488  0.507488  0.507488  0.507488  0.507488  0.507488  0.507488  0.507488  0.507488  0.507488  0.507488  0.507488  0.507488  0.507488  -9.15816  -0.113715  0.0196842  0.00320641  -0.1306  0.0196842  0.00580704  -0.0285781  0.0196842  -0.110761  -0.0762973  0.0196842  -0.101209  0.0289288  0.0196842  -0.0390061  -0.087529  -0.087529  -0.087529  -0.087529  -0.087529  -0.087529  -0.087529  -0.087529  -0.087529  -0.087529  -0.087529  -0.087529  -0.087529  -0.087529  -3.32234  -1.03458  0.0992425  1.33877  0.217962  0.0992425  1.10806  -0.507668  0.0992425  -0.252566  -0.81418  0.0992425  0.231534  -0.384387  0.0992425  0.489787  -0.195298  -0.195298  -0.195298  -0.195298  -0.195298  -0.195298  -0.195298  -0.195298  -0.195298  -0.195298  -0.195298  -0.195298  -0.195298  -0.195298  0  -1.03458  0.0992425  1.33877  0.217962  0.0992425  1.10806  -0.507668  0.0992425  -0.252566  -0.81418  0.0992425  0.231534  -0.384387  0.0992425  0.489787  -0.195298  -0.195298  -0.195298  -0.195298  -0.195298  -0.195298  -0.195298  -0.195298  -0.195298  -0.195298  -0.195298  -0.195298  -0.195298  -0.195298  0  -1.03458  0.0992425  1.33877  0.217962  0.0992425  1.10806  -0.507668  0.0992425  -0.252566  -0.81418  0.0992425  0.231534  -0.384387  0.0992425  0.489787  -0.195298  -0.195298  -0.195298  -0.195298  -0.195298  -0.195298  -0.195298  -0.195298  -0.195298  -0.195298  -0.195298  -0.195298  -0.195298  -0.195298  0  -1.03458  0.0992425  1.33877  0.217962  0.0992425  1.10806  -0.507668  0.0992425  -0.252566  -0.81418  0.0992425  0.231534  -0.384387  0.0992425  0.489787  -0.195298  -0.195298  -0.195298  -0.195298  -0.195298  -0.195298  -0.195298  -0.195298  -0.195298  -0.195298  -0.195298  -0.195298  -0.195298  -0.195298  0  1.26627  -2.69476  0.933199  0.501659  -2.69476  0.31104  0.235621  -2.69476  4.12826  0.360081  -2.69476  0.766844  0.497226  -2.69476  0.263557  0.245779  0.245779  0.245779  0.245779  -0.80939  -1.18395  -0.526034  -0.47271  -1.02571  -0.526034  -0.41881  -0.434475  -0.526034  -0.800358  -0.429211  -0.526034  -0.534437  -0.711845  -0.526034  -0.378418  -0.485613  -0.485613  -0.485613  -0.485613  -1.94231  -1.26627  2.69476  -0.933199  -0.501659  2.69476  -0.31104  -0.235621  2.69476  -4.12826  -0.360081  2.69476  -0.766844  -0.497226  2.69476  -0.263557  -0.245779  -0.245779  -0.245779  -0.245779  0.80939  -1.90459  -0.0685136  2.47182  -3.46107  -0.0685136  0.610699  0.593416  -0.0685136  -0.806823  0.422431  -0.0685136  2.30923  -1.92569  -0.0685136  0.110593  1.90759  1.90759  1.90759  1.90759  -3.07162  -1.18395  -0.526034  -0.47271  -1.02571  -0.526034  -0.41881  -0.434475  -0.526034  -0.800358  -0.429211  -0.526034  -0.534437  -0.711845  -0.526034  -0.378418  -0.485613  -0.485613  -0.485613  -0.485613  -1.94231  1.90459  0.0685136  -2.47182  3.46107  0.0685136  -0.610699  -0.593416  0.0685136  0.806823  -0.422431  0.0685136  -2.30923  1.92569  0.0685136  -0.110593  -1.90759  -1.90759  -1.90759  -1.90759  3.07162  3.61552  -1.56614  -2.8156  3.05274  -1.56614  -0.545643  -0.637641  -1.56614  -0.206672  -0.481623  -1.56614  -3.49954  -1.68524  -1.56614  -0.21854  -1.61416  -1.61416  -1.61416  -1.61416  0.80588  -1.18395  -0.526034  -0.47271  -1.02571  -0.526034  -0.41881  -0.434475  -0.526034  -0.800358  -0.429211  -0.526034  -0.534437  -0.711845  -0.526034  -0.378418  -0.485613  -0.485613  -0.485613  -0.485613  -1.94231  -3.61552  1.56614  2.8156  -3.05274  1.56614  0.545643  0.637641  1.56614  0.206672  0.481623  1.56614  3.49954  1.68524  1.56614  0.21854  1.61416  1.61416  1.61416  1.61416  -0.80588  3.62701  1.42132  0.150233  -1.7493  1.42132  -0.532629  -0.655044  1.42132  0.436238  -0.655351  1.42132  0.508093  -6.45085  1.42132  -0.209138  -0.80243  -0.80243  -0.80243  -0.80243  1.40133  -1.18395  -0.526034  -0.47271  -1.02571  -0.526034  -0.41881  -0.434475  -0.526034  -0.800358  -0.429211  -0.526034  -0.534437  -0.711845  -0.526034  -0.378418  -0.485613  -0.485613  -0.485613  -0.485613  -1.94231  -3.62701  -1.42132  -0.150233  1.7493  -1.42132  0.532629  0.655044  -1.42132  -0.436238  0.655351  -1.42132  -0.508093  6.45085  -1.42132  0.209138  0.80243  0.80243  0.80243  0.80243  -1.40133  0.931095  -1.52448  1.12575  4.04331  -1.52448  0.461759  0.475328  -1.52448  1.41493  0.494865  -1.52448  1.35913  1.3906  -1.52448  0.412724  0.855654  0.855654  0.855654  0.855654  1.86374  -1.18395  -0.526034  -0.47271  -1.02571  -0.526034  -0.41881  -0.434475  -0.526034  -0.800358  -0.429211  -0.526034  -0.534437  -0.711845  -0.526034  -0.378418  -0.485613  -0.485613  -0.485613  -0.485613  -1.94231  -0.037224  -0.027796  -0.0266659  0.015092  0.0205006  -0.0017057  -0.000635704  0.0064006  -0.00600652  0.0114059  0.0095151  -0.00576735  0.000431001  0.0133164  -0.00127643  -0.0161877  -0.0307933  -0.00498206  0.0224846  -0.00615687  -0.0385601  0.012188  0.0299795  -0.0236356  -0.0146849  0.00925003  0.0273043  -0.0359587  0.0432805  -0.00334887  0.0359146  -0.0211981  0.0211177  0.0214016  0.0179431  -0.0201062  0.0436902  0.0125259  -0.0105027  -0.0309488  -0.0127671  0.0162675  0.029198  -0.0102731  0.0240213  0.0148558  0.0363599  -0.00908845  0.0236269  -0.658073  -0.037224  -0.027796  -0.0266659  0.015092  0.0205006  -0.0017057  -0.000635704  0.0064006  -0.00600652  0.0114059  0.0095151  -0.00576735  0.000431001  0.0133164  -0.00127643  -0.0161877  -0.0307933  -0.00498206  0.0224846  -0.00615687  -0.0385601  0.012188  0.0299795  -0.0236356  -0.0146849  0.00925003  0.0273043  -0.0359587  0.0432805  -0.00334887  0.0359146  -0.0211981  0.0211177  0.0214016  0.0179431  -0.0201062  0.0436902  0.0125259  -0.0105027  -0.0309488  -0.0127671  0.0162675  0.029198  -0.0102731  0.0240213  0.0148558  0.0363599  -0.00908845  0.0236269  -0.658073  -0.0318089  -0.0237524  -0.0227867  0.0128965  0.0175182  -0.00145756  -0.000543225  0.00546947  -0.00513272  0.00974664  0.00813089  -0.00492835  0.000368301  0.0113792  -0.00109074  -0.0138328  -0.0263137  -0.0042573  0.0192136  -0.0052612  -0.0329506  0.0104149  0.0256182  -0.0201972  -0.0125486  0.00790438  0.0233322  -0.0307276  0.0369843  -0.00286169  0.0306899  -0.0181143  0.0180456  0.0182882  0.0153328  -0.0171813  0.0373344  0.0107037  -0.00897483  -0.0264465  -0.0109098  0.013901  0.0249505  -0.00877861  0.0205268  0.0126946  0.0310705  -0.00776631  0.0201897  0.520383  -0.037224  -0.027796  -0.0266659  0.015092  0.0205006  -0.0017057  -0.000635704  0.0064006  -0.00600652  0.0114059  0.0095151  -0.00576735  0.000431001  0.0133164  -0.00127643  -0.0161877  -0.0307933  -0.00498206  0.0224846  -0.00615687  -0.0385601  0.012188  0.0299795  -0.0236356  -0.0146849  0.00925003  0.0273043  -0.0359587  0.0432805  -0.00334887  0.0359146  -0.0211981  0.0211177  0.0214016  0.0179431  -0.0201062  0.0436902  0.0125259  -0.0105027  -0.0309488  -0.0127671  0.0162675  0.029198  -0.0102731  0.0240213  0.0148558  0.0363599  -0.00908845  0.0236269  -0.658073  -0.037224  -0.027796  -0.0266659  0.015092  0.0205006  -0.0017057  -0.000635704  0.0064006  -0.00600652  0.0114059  0.0095151  -0.00576735  0.000431001  0.0133164  -0.00127643  -0.0161877  -0.0307933  -0.00498206  0.0224846  -0.00615687  -0.0385601  0.012188  0.0299795  -0.0236356  -0.0146849  0.00925003  0.0273043  -0.0359587  0.0432805  -0.00334887  0.0359146  -0.0211981  0.0211177  0.0214016  0.0179431  -0.0201062  0.0436902  0.0125259  -0.0105027  -0.0309488  -0.0127671  0.0162675  0.029198  -0.0102731  0.0240213  0.0148558  0.0363599  -0.00908845  0.0236269  -0.658073  -0.0318089  -0.0237524  -0.0227867  0.0128965  0.0175182  -0.00145756  -0.000543225  0.00546947  -0.00513272  0.00974664  0.00813089  -0.00492835  0.000368301  0.0113792  -0.00109074  -0.0138328  -0.0263137  -0.0042573  0.0192136  -0.0052612  -0.0329506  0.0104149  0.0256182  -0.0201972  -0.0125486  0.00790438  0.0233322  -0.0307276  0.0369843  -0.00286169  0.0306899  -0.0181143  0.0180456  0.0182882  0.0153328  -0.0171813  0.0373344  0.0107037  -0.00897483  -0.0264465  -0.0109098  0.013901  0.0249505  -0.00877861  0.0205268  0.0126946  0.0310705  -0.00776631  0.0201897  0.520383  -0.037224  -0.027796  -0.0266659  0.015092  0.0205006  -0.0017057  -0.000635704  0.0064006  -0.00600652  0.0114059  0.0095151  -0.00576735  0.000431001  0.0133164  -0.00127643  -0.0161877  -0.0307933  -0.00498206  0.0224846  -0.00615687  -0.0385601  0.012188  0.0299795  -0.0236356  -0.0146849  0.00925003  0.0273043  -0.0359587  0.0432805  -0.00334887  0.0359146  -0.0211981  0.0211177  0.0214016  0.0179431  -0.0201062  0.0436902  0.0125259  -0.0105027  -0.0309488  -0.0127671  0.0162675  0.029198  -0.0102731  0.0240213  0.0148558  0.0363599  -0.00908845  0.0236269  -0.658073  -0.037224  -0.027796  -0.0266659  0.015092  0.0205006  -0.0017057  -0.000635704  0.0064006  -0.00600652  0.0114059  0.0095151  -0.00576735  0.000431001  0.0133164  -0.00127643  -0.0161877  -0.0307933  -0.00498206  0.0224846  -0.00615687  -0.0385601  0.012188  0.0299795  -0.0236356  -0.0146849  0.00925003  0.0273043  -0.0359587  0.0432805  -0.00334887  0.0359146  -0.0211981  0.0211177  0.0214016  0.0179431  -0.0201062  0.0436902  0.0125259  -0.0105027  -0.0309488  -0.0127671  0.0162675  0.029198  -0.0102731  0.0240213  0.0148558  0.0363599  -0.00908845  0.0236269  -0.658073  -0.0318089  -0.0237524  -0.0227867  0.0128965  0.0175182  -0.00145756  -0.000543225  0.00546947  -0.00513272  0.00974664  0.00813089  -0.00492835  0.000368301  0.0113792  -0.00109074  -0.0138328  -0.0263137  -0.0042573  0.0192136  -0.0052612  -0.0329506  0.0104149  0.0256182  -0.0201972  -0.0125486  0.00790438  0.0233322  -0.0307276  0.0369843  -0.00286169  0.0306899  -0.0181143  0.0180456  0.0182882  0.0153328  -0.0171813  0.0373344  0.0107037  -0.00897483  -0.0264465  -0.0109098  0.013901  0.0249505  -0.00877861  0.0205268  0.0126946  0.0310705  -0.00776631  0.0201897  0.520383  -0.037224  -0.027796  -0.0266659  0.015092  0.0205006  -0.0017057  -0.000635704  0.0064006  -0.00600652  0.0114059  0.0095151  -0.00576735  0.000431001  0.0133164  -0.00127643  -0.0161877  -0.0307933  -0.00498206  0.0224846  -0.00615687  -0.0385601  0.012188  0.0299795  -0.0236356  -0.0146849  0.00925003  0.0273043  -0.0359587  0.0432805  -0.00334887  0.0359146  -0.0211981  0.0211177  0.0214016  0.0179431  -0.0201062  0.0436902  0.0125259  -0.0105027  -0.0309488  -0.0127671  0.0162675  0.029198  -0.0102731  0.0240213  0.0148558  0.0363599  -0.00908845  0.0236269  -0.658073  -0.037224  -0.027796  -0.0266659  0.015092  0.0205006  -0.0017057  -0.000635704  0.0064006  -0.00600652  0.0114059  0.0095151  -0.00576735  0.000431001  0.0133164  -0.00127643  -0.0161877  -0.0307933  -0.00498206  0.0224846  -0.00615687  -0.0385601  0.012188  0.0299795  -0.0236356  -0.0146849  0.00925003  0.0273043  -0.0359587  0.0432805  -0.00334887  0.0359146  -0.0211981  0.0211177  0.0214016  0.0179431  -0.0201062  0.0436902  0.0125259  -0.0105027  -0.0309488  -0.0127671  0.0162675  0.029198  -0.0102731  0.0240213  0.0148558  0.0363599  -0.00908845  0.0236269  -0.658073  -0.0318089  -0.0237524  -0.0227867  0.0128965  0.0175182  -0.00145756  -0.000543225  0.00546947  -0.00513272  0.00974664  0.00813089  -0.00492835  0.000368301  0.0113792  -0.00109074  -0.0138328  -0.0263137  -0.0042573  0.0192136  -0.0052612  -0.0329506  0.0104149  0.0256182  -0.0201972  -0.0125486  0.00790438  0.0233322  -0.0307276  0.0369843  -0.00286169  0.0306899  -0.0181143  0.0180456  0.0182882  0.0153328  -0.0171813  0.0373344  0.0107037  -0.00897483  -0.0264465  -0.0109098  0.013901  0.0249505  -0.00877861  0.0205268  0.0126946  0.0310705  -0.00776631  0.0201897  0.520383  -0.0318089  -0.0237524  -0.0227867  0.0128965  0.0175182  -0.00145756  -0.000543225  0.00546947  -0.00513272  0.00974664  0.00813089  -0.00492835  0.000368301  0.0113792  -0.00109074  -0.0138328  -0.0263137  -0.0042573  0.0192136  -0.0052612  -0.0329506  0.0104149  0.0256182  -0.0201972  -0.0125486  0.00790438  0.0233322  -0.0307276  0.0369843  -0.00286169  0.0306899  -0.0181143  0.0180456  0.0182882  0.0153328  -0.0171813  0.0373344  0.0107037  -0.00897483  -0.0264465  -0.0109098  0.013901  0.0249505  -0.00877861  0.0205268  0.0126946  0.0310705  -0.00776631  0.0201897  0.520383  -0.037224  -0.027796  -0.0266659  0.015092  0.0205006  -0.0017057  -0.000635704  0.0064006  -0.00600652  0.0114059  0.0095151  -0.00576735  0.000431001  0.0133164  -0.00127643  -0.0161877  -0.0307933  -0.00498206  0.0224846  -0.00615687  -0.0385601  0.012188  0.0299795  -0.0236356  -0.0146849  0.00925003  0.0273043  -0.0359587  0.0432805  -0.00334887  0.0359146  -0.0211981  0.0211177  0.0214016  0.0179431  -0.0201062  0.0436902  0.0125259  -0.0105027  -0.0309488  -0.0127671  0.0162675  0.029198  -0.0102731  0.0240213  0.0148558  0.0363599  -0.00908845  0.0236269  -0.658073  -0.037224  -0.027796  -0.0266659  0.015092  0.0205006  -0.0017057  -0.000635704  0.0064006  -0.00600652  0.0114059  0.0095151  -0.00576735  0.000431001  0.0133164  -0.00127643  -0.0161877  -0.0307933  -0.00498206  0.0224846  -0.00615687  -0.0385601  0.012188  0.0299795  -0.0236356  -0.0146849  0.00925003  0.0273043  -0.0359587  0.0432805  -0.00334887  0.0359146  -0.0211981  0.0211177  0.0214016  0.0179431  -0.0201062  0.0436902  0.0125259  -0.0105027  -0.0309488  -0.0127671  0.0162675  0.029198  -0.0102731  0.0240213  0.0148558  0.0363599  -0.00908845  0.0236269  -0.658073  -0.0346177  -0.0258498  -0.0247988  0.0140353  0.0190652  -0.00158627  -0.000591194  0.00595245  -0.00558597  0.0106073  0.00884888  -0.00536354  0.000400824  0.012384  -0.00118706  -0.0150543  -0.0286373  -0.00463324  0.0209103  -0.00572578  -0.0358602  0.0113346  0.0278804  -0.0219807  -0.0136567  0.00860237  0.0253925  -0.033441  0.0402502  -0.00311439  0.0333999  -0.0197139  0.0196391  0.0199032  0.0166868  -0.0186985  0.0406312  0.0116488  -0.00976735  -0.0287818  -0.0118732  0.0151285  0.0271537  -0.0095538  0.0223394  0.0138156  0.0338141  -0.00845211  0.0219726  0  -0.0346177  -0.0258498  -0.0247988  0.0140353  0.0190652  -0.00158627  -0.000591194  0.00595245  -0.00558597  0.0106073  0.00884888  -0.00536354  0.000400824  0.012384  -0.00118706  -0.0150543  -0.0286373  -0.00463324  0.0209103  -0.00572578  -0.0358602  0.0113346  0.0278804  -0.0219807  -0.0136567  0.00860237  0.0253925  -0.033441  0.0402502  -0.00311439  0.0333999  -0.0197139  0.0196391  0.0199032  0.0166868  -0.0186985  0.0406312  0.0116488  -0.00976735  -0.0287818  -0.0118732  0.0151285  0.0271537  -0.0095538  0.0223394  0.0138156  0.0338141  -0.00845211  0.0219726  0  -0.0346177  -0.0258498  -0.0247988  0.0140353  0.0190652  -0.00158627  -0.000591194  0.00595245  -0.00558597  0.0106073  0.00884888  -0.00536354  0.000400824  0.012384  -0.00118706  -0.0150543  -0.0286373  -0.00463324  0.0209103  -0.00572578  -0.0358602  0.0113346  0.0278804  -0.0219807  -0.0136567  0.00860237  0.0253925  -0.033441  0.0402502  -0.00311439  0.0333999  -0.0197139  0.0196391  0.0199032  0.0166868  -0.0186985  0.0406312  0.0116488  -0.00976735  -0.0287818  -0.0118732  0.0151285  0.0271537  -0.0095538  0.0223394  0.0138156  0.0338141  -0.00845211  0.0219726  0  -0.0346177  -0.0258498  -0.0247988  0.0140353  0.0190652  -0.00158627  -0.000591194  0.00595245  -0.00558597  0.0106073  0.00884888  -0.00536354  0.000400824  0.012384  -0.00118706  -0.0150543  -0.0286373  -0.00463324  0.0209103  -0.00572578  -0.0358602  0.0113346  0.0278804  -0.0219807  -0.0136567  0.00860237  0.0253925  -0.033441  0.0402502  -0.00311439  0.0333999  -0.0197139  0.0196391  0.0199032  0.0166868  -0.0186985  0.0406312  0.0116488  -0.00976735  -0.0287818  -0.0118732  0.0151285  0.0271537  -0.0095538  0.0223394  0.0138156  0.0338141  -0.00845211  0.0219726  0  -0.0346177  -0.0258498  -0.0247988  0.0140353  0.0190652  -0.00158627  -0.000591194  0.00595245  -0.00558597  0.0106073  0.00884888  -0.00536354  0.000400824  0.012384  -0.00118706  -0.0150543  -0.0286373  -0.00463324  0.0209103  -0.00572578  -0.0358602  0.0113346  0.0278804  -0.0219807  -0.0136567  0.00860237  0.0253925  -0.033441  0.0402502  -0.00311439  0.0333999  -0.0197139  0.0196391  0.0199032  0.0166868  -0.0186985  0.0406312  0.0116488  -0.00976735  -0.0287818  -0.0118732  0.0151285  0.0271537  -0.0095538  0.0223394  0.0138156  0.0338141  -0.00845211  0.0219726  0  -0.0346177  -0.0258498  -0.0247988  0.0140353  0.0190652  -0.00158627  -0.000591194  0.00595245  -0.00558597  0.0106073  0.00884888  -0.00536354  0.000400824  0.012384  -0.00118706  -0.0150543  -0.0286373  -0.00463324  0.0209103  -0.00572578  -0.0358602  0.0113346  0.0278804  -0.0219807  -0.0136567  0.00860237  0.0253925  -0.033441  0.0402502  -0.00311439  0.0333999  -0.0197139  0.0196391  0.0199032  0.0166868  -0.0186985  0.0406312  0.0116488  -0.00976735  -0.0287818  -0.0118732  0.0151285  0.0271537  -0.0095538  0.0223394  0.0138156  0.0338141  -0.00845211  0.0219726  0  -0.0346177  -0.0258498  -0.0247988  0.0140353  0.0190652  -0.00158627  -0.000591194  0.00595245  -0.00558597  0.0106073  0.00884888  -0.00536354  0.000400824  0.012384  -0.00118706  -0.0150543  -0.0286373  -0.00463324  0.0209103  -0.00572578  -0.0358602  0.0113346  0.0278804  -0.0219807  -0.0136567  0.00860237  0.0253925  -0.033441  0.0402502  -0.00311439  0.0333999  -0.0197139  0.0196391  0.0199032  0.0166868  -0.0186985  0.0406312  0.0116488  -0.00976735  -0.0287818  -0.0118732  0.0151285  0.0271537  -0.0095538  0.0223394  0.0138156  0.0338141  -0.00845211  0.0219726  0  -0.0346177  -0.0258498  -0.0247988  0.0140353  0.0190652  -0.00158627  -0.000591194  0.00595245  -0.00558597  0.0106073  0.00884888  -0.00536354  0.000400824  0.012384  -0.00118706  -0.0150543  -0.0286373  -0.00463324  0.0209103  -0.00572578  -0.0358602  0.0113346  0.0278804  -0.0219807  -0.0136567  0.00860237  0.0253925  -0.033441  0.0402502  -0.00311439  0.0333999  -0.0197139  0.0196391  0.0199032  0.0166868  -0.0186985  0.0406312  0.0116488  -0.00976735  -0.0287818  -0.0118732  0.0151285  0.0271537  -0.0095538  0.0223394  0.0138156  0.0338141  -0.00845211  0.0219726  0  -0.0346177  -0.0258498  -0.0247988  0.0140353  0.0190652  -0.00158627  -0.000591194  0.00595245  -0.00558597  0.0106073  0.00884888  -0.00536354  0.000400824  0.012384  -0.00118706  -0.0150543  -0.0286373  -0.00463324  0.0209103  -0.00572578  -0.0358602  0.0113346  0.0278804  -0.0219807  -0.0136567  0.00860237  0.0253925  -0.033441  0.0402502  -0.00311439  0.0333999  -0.0197139  0.0196391  0.0199032  0.0166868  -0.0186985  0.0406312  0.0116488  -0.00976735  -0.0287818  -0.0118732  0.0151285  0.0271537  -0.0095538  0.0223394  0.0138156  0.0338141  -0.00845211  0.0219726  0  -0.0346177  -0.0258498  -0.0247988  0.0140353  0.0190652  -0.00158627  -0.000591194  0.00595245  -0.00558597  0.0106073  0.00884888  -0.00536354  0.000400824  0.012384  -0.00118706  -0.0150543  -0.0286373  -0.00463324  0.0209103  -0.00572578  -0.0358602  0.0113346  0.0278804  -0.0219807  -0.0136567  0.00860237  0.0253925  -0.033441  0.0402502  -0.00311439  0.0333999  -0.0197139  0.0196391  0.0199032  0.0166868  -0.0186985  0.0406312  0.0116488  -0.00976735  -0.0287818  -0.0118732  0.0151285  0.0271537  -0.0095538  0.0223394  0.0138156  0.0338141  -0.00845211  0.0219726  0  -0.0346177  -0.0258498  -0.0247988  0.0140353  0.0190652  -0.00158627  -0.000591194  0.00595245  -0.00558597  0.0106073  0.00884888  -0.00536354  0.000400824  0.012384  -0.00118706  -0.0150543  -0.0286373  -0.00463324  0.0209103  -0.00572578  -0.0358602  0.0113346  0.0278804  -0.0219807  -0.0136567  0.00860237  0.0253925  -0.033441  0.0402502  -0.00311439  0.0333999  -0.0197139  0.0196391  0.0199032  0.0166868  -0.0186985  0.0406312  0.0116488  -0.00976735  -0.0287818  -0.0118732  0.0151285  0.0271537  -0.0095538  0.0223394  0.0138156  0.0338141  -0.00845211  0.0219726  0  -0.0346177  -0.0258498  -0.0247988  0.0140353  0.0190652  -0.00158627  -0.000591194  0.00595245  -0.00558597  0.0106073  0.00884888  -0.00536354  0.000400824  0.012384  -0.00118706  -0.0150543  -0.0286373  -0.00463324  0.0209103  -0.00572578  -0.0358602  0.0113346  0.0278804  -0.0219807  -0.0136567  0.00860237  0.0253925  -0.033441  0.0402502  -0.00311439  0.0333999  -0.0197139  0.0196391  0.0199032  0.0166868  -0.0186985  0.0406312  0.0116488  -0.00976735  -0.0287818  -0.0118732  0.0151285  0.0271537  -0.0095538  0.0223394  0.0138156  0.0338141  -0.00845211  0.0219726  0  -0.0346177  -0.0258498  -0.0247988  0.0140353  0.0190652  -0.00158627  -0.000591194  0.00595245  -0.00558597  0.0106073  0.00884888  -0.00536354  0.000400824  0.012384  -0.00118706  -0.0150543  -0.0286373  -0.00463324  0.0209103  -0.00572578  -0.0358602  0.0113346  0.0278804  -0.0219807  -0.0136567  0.00860237  0.0253925  -0.033441  0.0402502  -0.00311439  0.0333999  -0.0197139  0.0196391  0.0199032  0.0166868  -0.0186985  0.0406312  0.0116488  -0.00976735  -0.0287818  -0.0118732  0.0151285  0.0271537  -0.0095538  0.0223394  0.0138156  0.0338141  -0.00845211  0.0219726  0  -0.0346177  -0.0258498  -0.0247988  0.0140353  0.0190652  -0.00158627  -0.000591194  0.00595245  -0.00558597  0.0106073  0.00884888  -0.00536354  0.000400824  0.012384  -0.00118706  -0.0150543  -0.0286373  -0.00463324  0.0209103  -0.00572578  -0.0358602  0.0113346  0.0278804  -0.0219807  -0.0136567  0.00860237  0.0253925  -0.033441  0.0402502  -0.00311439  0.0333999  -0.0197139  0.0196391  0.0199032  0.0166868  -0.0186985  0.0406312  0.0116488  -0.00976735  -0.0287818  -0.0118732  0.0151285  0.0271537  -0.0095538  0.0223394  0.0138156  0.0338141  -0.00845211  0.0219726  0  0.0629006  0.0629006  0.0742596  0.0629006  0.0629006  0.0742596  0.0629006  0.0629006  0.0742596  0.0629006  0.0629006  0.0742596  0.0742596  0.0629006  0.0629006  0.0693405  0.0693405  0.0693405  0.0693405  0.0693405  0.0693405  0.0693405  0.0693405  0.0693405  0.0693405  0.0693405  0.0693405  0.0693405  0.0693405  -0.718267  0.0629006  0.0629006  0.0742596  0.0629006  0.0629006  0.0742596  0.0629006  0.0629006  0.0742596  0.0629006  0.0629006  0.0742596  0.0742596  0.0629006  0.0629006  0.0693405  0.0693405  0.0693405  0.0693405  0.0693405  0.0693405  0.0693405  0.0693405  0.0693405  0.0693405  0.0693405  0.0693405  0.0693405  0.0693405  -0.718267  0.0545926  0.0545926  0.0646856  0.0545926  0.0545926  0.0646856  0.0545926  0.0545926  0.0646856  0.0545926  0.0545926  0.0646856  0.0646856  0.0545926  0.0545926  0.0602333  0.0602333  0.0602333  0.0602333  0.0602333  0.0602333  0.0602333  0.0602333  0.0602333  0.0602333  0.0602333  0.0602333  0.0602333  0.0602333  0.564182  0.0629006  0.0629006  0.0742596  0.0629006  0.0629006  0.0742596  0.0629006  0.0629006  0.0742596  0.0629006  0.0629006  0.0742596  0.0742596  0.0629006  0.0629006  0.0693405  0.0693405  0.0693405  0.0693405  0.0693405  0.0693405  0.0693405  0.0693405  0.0693405  0.0693405  0.0693405  0.0693405  0.0693405  0.0693405  -0.718267  0.0629006  0.0629006  0.0742596  0.0629006  0.0629006  0.0742596  0.0629006  0.0629006  0.0742596  0.0629006  0.0629006  0.0742596  0.0742596  0.0629006  0.0629006  0.0693405  0.0693405  0.0693405  0.0693405  0.0693405  0.0693405  0.0693405  0.0693405  0.0693405  0.0693405  0.0693405  0.0693405  0.0693405  0.0693405  -0.718267  0.0545926  0.0545926  0.0646856  0.0545926  0.0545926  0.0646856  0.0545926  0.0545926  0.0646856  0.0545926  0.0545926  0.0646856  0.0646856  0.0545926  0.0545926  0.0602333  0.0602333  0.0602333  0.0602333  0.0602333  0.0602333  0.0602333  0.0602333  0.0602333  0.0602333  0.0602333  0.0602333  0.0602333  0.0602333  0.564182  0.0629006  0.0629006  0.0742596  0.0629006  0.0629006  0.0742596  0.0629006  0.0629006  0.0742596  0.0629006  0.0629006  0.0742596  0.0742596  0.0629006  0.0629006  0.0693405  0.0693405  0.0693405  0.0693405  0.0693405  0.0693405  0.0693405  0.0693405  0.0693405  0.0693405  0.0693405  0.0693405  0.0693405  0.0693405  -0.718267  0.0629006  0.0629006  0.0742596  0.0629006  0.0629006  0.0742596  0.0629006  0.0629006  0.0742596  0.0629006  0.0629006  0.0742596  0.0742596  0.0629006  0.0629006  0.0693405  0.0693405  0.0693405  0.0693405  0.0693405  0.0693405  0.0693405  0.0693405  0.0693405  0.0693405  0.0693405  0.0693405  0.0693405  0.0693405  -0.718267  0.0545926  0.0545926  0.0646856  0.0545926  0.0545926  0.0646856  0.0545926  0.0545926  0.0646856  0.0545926  0.0545926  0.0646856  0.0646856  0.0545926  0.0545926  0.0602333  0.0602333  0.0602333  0.0602333  0.0602333  0.0602333  0.0602333  0.0602333  0.0602333  0.0602333  0.0602333  0.0602333  0.0602333  0.0602333  0.564182  0.0629006  0.0629006  0.0742596  0.0629006  0.0629006  0.0742596  0.0629006  0.0629006  0.0742596  0.0629006  0.0629006  0.0742596  0.0742596  0.0629006  0.0629006  0.0693405  0.0693405  0.0693405  0.0693405  0.0693405  0.0693405  0.0693405  0.0693405  0.0693405  0.0693405  0.0693405  0.0693405  0.0693405  0.0693405  -0.718267  0.0629006  0.0629006  0.0742596  0.0629006  0.0629006  0.0742596  0.0629006  0.0629006  0.0742596  0.0629006  0.0629006  0.0742596  0.0742596  0.0629006  0.0629006  0.0693405  0.0693405  0.0693405  0.0693405  0.0693405  0.0693405  0.0693405  0.0693405  0.0693405  0.0693405  0.0693405  0.0693405  0.0693405  0.0693405  -0.718267  0.0545926  0.0545926  0.0646856  0.0545926  0.0545926  0.0646856  0.0545926  0.0545926  0.0646856  0.0545926  0.0545926  0.0646856  0.0646856  0.0545926  0.0545926  0.0602333  0.0602333  0.0602333  0.0602333  0.0602333  0.0602333  0.0602333  0.0602333  0.0602333  0.0602333  0.0602333  0.0602333  0.0602333  0.0602333  0.564182  0.0545926  0.0545926  0.0646856  0.0545926  0.0545926  0.0646856  0.0545926  0.0545926  0.0646856  0.0545926  0.0545926  0.0646856  0.0646856  0.0545926  0.0545926  0.0602333  0.0602333  0.0602333  0.0602333  0.0602333  0.0602333  0.0602333  0.0602333  0.0602333  0.0602333  0.0602333  0.0602333  0.0602333  0.0602333  0.564182  0.0629006  0.0629006  0.0742596  0.0629006  0.0629006  0.0742596  0.0629006  0.0629006  0.0742596  0.0629006  0.0629006  0.0742596  0.0742596  0.0629006  0.0629006  0.0693405  0.0693405  0.0693405  0.0693405  0.0693405  0.0693405  0.0693405  0.0693405  0.0693405  0.0693405  0.0693405  0.0693405  0.0693405  0.0693405  -0.718267  0.0629006  0.0629006  0.0742596  0.0629006  0.0629006  0.0742596  0.0629006  0.0629006  0.0742596  0.0629006  0.0629006  0.0742596  0.0742596  0.0629006  0.0629006  0.0693405  0.0693405  0.0693405  0.0693405  0.0693405  0.0693405  0.0693405  0.0693405  0.0693405  0.0693405  0.0693405  0.0693405  0.0693405  0.0693405  -0.718267  0.0591455  0.0591455  0.069985  0.0591455  0.0591455  0.069985  0.0591455  0.0591455  0.069985  0.0591455  0.0591455  0.069985  0.069985  0.0591455  0.0591455  0.0652459  0.0652459  0.0652459  0.0652459  0.0652459  0.0652459  0.0652459  0.0652459  0.0652459  0.0652459  0.0652459  0.0652459  0.0652459  0.0652459  0  0.0591455  0.0591455  0.069985  0.0591455  0.0591455  0.069985  0.0591455  0.0591455  0.069985  0.0591455  0.0591455  0.069985  0.069985  0.0591455  0.0591455  0.0652459  0.0652459  0.0652459  0.0652459  0.0652459  0.0652459  0.0652459  0.0652459  0.0652459  0.0652459  0.0652459  0.0652459  0.0652459  0.0652459  0  0.0591455  0.0591455  0.069985  0.0591455  0.0591455  0.069985  0.0591455  0.0591455  0.069985  0.0591455  0.0591455  0.069985  0.069985  0.0591455  0.0591455  0.0652459  0.0652459  0.0652459  0.0652459  0.0652459  0.0652459  0.0652459  0.0652459  0.0652459  0.0652459  0.0652459  0.0652459  0.0652459  0.0652459  0  0.0591455  0.0591455  0.069985  0.0591455  0.0591455  0.069985  0.0591455  0.0591455  0.069985  0.0591455  0.0591455  0.069985  0.069985  0.0591455  0.0591455  0.0652459  0.0652459  0.0652459  0.0652459  0.0652459  0.0652459  0.0652459  0.0652459  0.0652459  0.0652459  0.0652459  0.0652459  0.0652459  0.0652459  0  -0.190751  -0.190751  -0.221172  -0.190751  -0.190751  -0.221172  -0.190751  -0.190751  -0.221172  -0.190751  -0.190751  -0.221172  -0.221172  -0.190751  -0.190751  -0.207574  -0.207574  -0.207574  -0.207574  -0.352872  -0.190751  -0.190751  -0.221172  -0.190751  -0.190751  -0.221172  -0.190751  -0.190751  -0.221172  -0.190751  -0.190751  -0.221172  -0.221172  -0.190751  -0.190751  -0.207574  -0.207574  -0.207574  -0.207574  -0.352872  0.190751  0.190751  0.221172  0.190751  0.190751  0.221172  0.190751  0.190751  0.221172  0.190751  0.190751  0.221172  0.221172  0.190751  0.190751  0.207574  0.207574  0.207574  0.207574  0.352872  -0.190751  -0.190751  -0.221172  -0.190751  -0.190751  -0.221172  -0.190751  -0.190751  -0.221172  -0.190751  -0.190751  -0.221172  -0.221172  -0.190751  -0.190751  -0.207574  -0.207574  -0.207574  -0.207574  -0.352872  -0.190751  -0.190751  -0.221172  -0.190751  -0.190751  -0.221172  -0.190751  -0.190751  -0.221172  -0.190751  -0.190751  -0.221172  -0.221172  -0.190751  -0.190751  -0.207574  -0.207574  -0.207574  -0.207574  -0.352872  0.190751  0.190751  0.221172  0.190751  0.190751  0.221172  0.190751  0.190751  0.221172  0.190751  0.190751  0.221172  0.221172  0.190751  0.190751  0.207574  0.207574  0.207574  0.207574  0.352872  -0.190751  -0.190751  -0.221172  -0.190751  -0.190751  -0.221172  -0.190751  -0.190751  -0.221172  -0.190751  -0.190751  -0.221172  -0.221172  -0.190751  -0.190751  -0.207574  -0.207574  -0.207574  -0.207574  -0.352872  -0.190751  -0.190751  -0.221172  -0.190751  -0.190751  -0.221172  -0.190751  -0.190751  -0.221172  -0.190751  -0.190751  -0.221172  -0.221172  -0.190751  -0.190751  -0.207574  -0.207574  -0.207574  -0.207574  -0.352872  0.190751  0.190751  0.221172  0.190751  0.190751  0.221172  0.190751  0.190751  0.221172  0.190751  0.190751  0.221172  0.221172  0.190751  0.190751  0.207574  0.207574  0.207574  0.207574  0.352872  -0.190751  -0.190751  -0.221172  -0.190751  -0.190751  -0.221172  -0.190751  -0.190751  -0.221172  -0.190751  -0.190751  -0.221172  -0.221172  -0.190751  -0.190751  -0.207574  -0.207574  -0.207574  -0.207574  -0.352872  -0.190751  -0.190751  -0.221172  -0.190751  -0.190751  -0.221172  -0.190751  -0.190751  -0.221172  -0.190751  -0.190751  -0.221172  -0.221172  -0.190751  -0.190751  -0.207574  -0.207574  -0.207574  -0.207574  -0.352872  0.190751  0.190751  0.221172  0.190751  0.190751  0.221172  0.190751  0.190751  0.221172  0.190751  0.190751  0.221172  0.221172  0.190751  0.190751  0.207574  0.207574  0.207574  0.207574  0.352872  0.190751  0.190751  0.221172  0.190751  0.190751  0.221172  0.190751  0.190751  0.221172  0.190751  0.190751  0.221172  0.221172  0.190751  0.190751  0.207574  0.207574  0.207574  0.207574  0.352872  -0.190751  -0.190751  -0.221172  -0.190751  -0.190751  -0.221172  -0.190751  -0.190751  -0.221172  -0.190751  -0.190751  -0.221172  -0.221172  -0.190751  -0.190751  -0.207574  -0.207574  -0.207574  -0.207574  -0.352872  -0.037224  -0.027796  -0.0266659  0.015092  0.0205006  -0.0017057  -0.000635704  0.0064006  -0.00600652  0.0114059  0.0095151  -0.00576735  0.000431001  0.0133164  -0.00127643  -0.0161877  -0.0307933  -0.00498206  0.0224846  -0.00615687  -0.0385601  0.012188  0.0299795  -0.0236356  -0.0146849  0.00925003  0.0273043  -0.0359587  0.0432805  -0.00334887  0.0359146  -0.0211981  0.0211177  0.0214016  0.0179431  -0.0201062  0.0436902  0.0125259  -0.0105027  -0.0309488  -0.0127671  0.0162675  0.029198  -0.0102731  0.0240213  0.0148558  0.0363599  -0.00908845  0.0236269  -0.658073  -0.037224  -0.027796  -0.0266659  0.015092  0.0205006  -0.0017057  -0.000635704  0.0064006  -0.00600652  0.0114059  0.0095151  -0.00576735  0.000431001  0.0133164  -0.00127643  -0.0161877  -0.0307933  -0.00498206  0.0224846  -0.00615687  -0.0385601  0.012188  0.0299795  -0.0236356  -0.0146849  0.00925003  0.0273043  -0.0359587  0.0432805  -0.00334887  0.0359146  -0.0211981  0.0211177  0.0214016  0.0179431  -0.0201062  0.0436902  0.0125259  -0.0105027  -0.0309488  -0.0127671  0.0162675  0.029198  -0.0102731  0.0240213  0.0148558  0.0363599  -0.00908845  0.0236269  -0.658073  -0.0318089  -0.0237524  -0.0227867  0.0128965  0.0175182  -0.00145756  -0.000543225  0.00546947  -0.00513272  0.00974664  0.00813089  -0.00492835  0.000368301  0.0113792  -0.00109074  -0.0138328  -0.0263137  -0.0042573  0.0192136  -0.0052612  -0.0329506  0.0104149  0.0256182  -0.0201972  -0.0125486  0.00790438  0.0233322  -0.0307276  0.0369843  -0.00286169  0.0306899  -0.0181143  0.0180456  0.0182882  0.0153328  -0.0171813  0.0373344  0.0107037  -0.00897483  -0.0264465  -0.0109098  0.013901  0.0249505  -0.00877861  0.0205268  0.0126946  0.0310705  -0.00776631  0.0201897  0.520383  -0.037224  -0.027796  -0.0266659  0.015092  0.0205006  -0.0017057  -0.000635704  0.0064006  -0.00600652  0.0114059  0.0095151  -0.00576735  0.000431001  0.0133164  -0.00127643  -0.0161877  -0.0307933  -0.00498206  0.0224846  -0.00615687  -0.0385601  0.012188  0.0299795  -0.0236356  -0.0146849  0.00925003  0.0273043  -0.0359587  0.0432805  -0.00334887  0.0359146  -0.0211981  0.0211177  0.0214016  0.0179431  -0.0201062  0.0436902  0.0125259  -0.0105027  -0.0309488  -0.0127671  0.0162675  0.029198  -0.0102731  0.0240213  0.0148558  0.0363599  -0.00908845  0.0236269  -0.658073  -0.037224  -0.027796  -0.0266659  0.015092  0.0205006  -0.0017057  -0.000635704  0.0064006  -0.00600652  0.0114059  0.0095151  -0.00576735  0.000431001  0.0133164  -0.00127643  -0.0161877  -0.0307933  -0.00498206  0.0224846  -0.00615687  -0.0385601  0.012188  0.0299795  -0.0236356  -0.0146849  0.00925003  0.0273043  -0.0359587  0.0432805  -0.00334887  0.0359146  -0.0211981  0.0211177  0.0214016  0.0179431  -0.0201062  0.0436902  0.0125259  -0.0105027  -0.0309488  -0.0127671  0.0162675  0.029198  -0.0102731  0.0240213  0.0148558  0.0363599  -0.00908845  0.0236269  -0.658073  -0.0318089  -0.0237524  -0.0227867  0.0128965  0.0175182  -0.00145756  -0.000543225  0.00546947  -0.00513272  0.00974664  0.00813089  -0.00492835  0.000368301  0.0113792  -0.00109074  -0.0138328  -0.0263137  -0.0042573  0.0192136  -0.0052612  -0.0329506  0.0104149  0.0256182  -0.0201972  -0.0125486  0.00790438  0.0233322  -0.0307276  0.0369843  -0.00286169  0.0306899  -0.0181143  0.0180456  0.0182882  0.0153328  -0.0171813  0.0373344  0.0107037  -0.00897483  -0.0264465  -0.0109098  0.013901  0.0249505  -0.00877861  0.0205268  0.0126946  0.0310705  -0.00776631  0.0201897  0.520383  -0.037224  -0.027796  -0.0266659  0.015092  0.0205006  -0.0017057  -0.000635704  0.0064006  -0.00600652  0.0114059  0.0095151  -0.00576735  0.000431001  0.0133164  -0.00127643  -0.0161877  -0.0307933  -0.00498206  0.0224846  -0.00615687  -0.0385601  0.012188  0.0299795  -0.0236356  -0.0146849  0.00925003  0.0273043  -0.0359587  0.0432805  -0.00334887  0.0359146  -0.0211981  0.0211177  0.0214016  0.0179431  -0.0201062  0.0436902  0.0125259  -0.0105027  -0.0309488  -0.0127671  0.0162675  0.029198  -0.0102731  0.0240213  0.0148558  0.0363599  -0.00908845  0.0236269  -0.658073  -0.037224  -0.027796  -0.0266659  0.015092  0.0205006  -0.0017057  -0.000635704  0.0064006  -0.00600652  0.0114059  0.0095151  -0.00576735  0.000431001  0.0133164  -0.00127643  -0.0161877  -0.0307933  -0.00498206  0.0224846  -0.00615687  -0.0385601  0.012188  0.0299795  -0.0236356  -0.0146849  0.00925003  0.0273043  -0.0359587  0.0432805  -0.00334887  0.0359146  -0.0211981  0.0211177  0.0214016  0.0179431  -0.0201062  0.0436902  0.0125259  -0.0105027  -0.0309488  -0.0127671  0.0162675  0.029198  -0.0102731  0.0240213  0.0148558  0.0363599  -0.00908845  0.0236269  -0.658073  -0.0318089  -0.0237524  -0.0227867  0.0128965  0.0175182  -0.00145756  -0.000543225  0.00546947  -0.00513272  0.00974664  0.00813089  -0.00492835  0.000368301  0.0113792  -0.00109074  -0.0138328  -0.0263137  -0.0042573  0.0192136  -0.0052612  -0.0329506  0.0104149  0.0256182  -0.0201972  -0.0125486  0.00790438  0.0233322  -0.0307276  0.0369843  -0.00286169  0.0306899  -0.0181143  0.0180456  0.0182882  0.0153328  -0.0171813  0.0373344  0.0107037  -0.00897483  -0.0264465  -0.0109098  0.013901  0.0249505  -0.00877861  0.0205268  0.0126946  0.0310705  -0.00776631  0.0201897  0.520383  -0.037224  -0.027796  -0.0266659  0.015092  0.0205006  -0.0017057  -0.000635704  0.0064006  -0.00600652  0.0114059  0.0095151  -0.00576735  0.000431001  0.0133164  -0.00127643  -0.0161877  -0.0307933  -0.00498206  0.0224846  -0.00615687  -0.0385601  0.012188  0.0299795  -0.0236356  -0.0146849  0.00925003  0.0273043  -0.0359587  0.0432805  -0.00334887  0.0359146  -0.0211981  0.0211177  0.0214016  0.0179431  -0.0201062  0.0436902  0.0125259  -0.0105027  -0.0309488  -0.0127671  0.0162675  0.029198  -0.0102731  0.0240213  0.0148558  0.0363599  -0.00908845  0.0236269  -0.658073  -0.037224  -0.027796  -0.0266659  0.015092  0.0205006  -0.0017057  -0.000635704  0.0064006  -0.00600652  0.0114059  0.0095151  -0.00576735  0.000431001  0.0133164  -0.00127643  -0.0161877  -0.0307933  -0.00498206  0.0224846  -0.00615687  -0.0385601  0.012188  0.0299795  -0.0236356  -0.0146849  0.00925003  0.0273043  -0.0359587  0.0432805  -0.00334887  0.0359146  -0.0211981  0.0211177  0.0214016  0.0179431  -0.0201062  0.0436902  0.0125259  -0.0105027  -0.0309488  -0.0127671  0.0162675  0.029198  -0.0102731  0.0240213  0.0148558  0.0363599  -0.00908845  0.0236269  -0.658073  -0.0318089  -0.0237524  -0.0227867  0.0128965  0.0175182  -0.00145756  -0.000543225  0.00546947  -0.00513272  0.00974664  0.00813089  -0.00492835  0.000368301  0.0113792  -0.00109074  -0.0138328  -0.0263137  -0.0042573  0.0192136  -0.0052612  -0.0329506  0.0104149  0.0256182  -0.0201972  -0.0125486  0.00790438  0.0233322  -0.0307276  0.0369843  -0.00286169  0.0306899  -0.0181143  0.0180456  0.0182882  0.0153328  -0.0171813  0.0373344  0.0107037  -0.00897483  -0.0264465  -0.0109098  0.013901  0.0249505  -0.00877861  0.0205268  0.0126946  0.0310705  -0.00776631  0.0201897  0.520383  -0.0318089  -0.0237524  -0.0227867  0.0128965  0.0175182  -0.00145756  -0.000543225  0.00546947  -0.00513272  0.00974664  0.00813089  -0.00492835  0.000368301  0.0113792  -0.00109074  -0.0138328  -0.0263137  -0.0042573  0.0192136  -0.0052612  -0.0329506  0.0104149  0.0256182  -0.0201972  -0.0125486  0.00790438  0.0233322  -0.0307276  0.0369843  -0.00286169  0.0306899  -0.0181143  0.0180456  0.0182882  0.0153328  -0.0171813  0.0373344  0.0107037  -0.00897483  -0.0264465  -0.0109098  0.013901  0.0249505  -0.00877861  0.0205268  0.0126946  0.0310705  -0.00776631  0.0201897  0.520383  -0.037224  -0.027796  -0.0266659  0.015092  0.0205006  -0.0017057  -0.000635704  0.0064006  -0.00600652  0.0114059  0.0095151  -0.00576735  0.000431001  0.0133164  -0.00127643  -0.0161877  -0.0307933  -0.00498206  0.0224846  -0.00615687  -0.0385601  0.012188  0.0299795  -0.0236356  -0.0146849  0.00925003  0.0273043  -0.0359587  0.0432805  -0.00334887  0.0359146  -0.0211981  0.0211177  0.0214016  0.0179431  -0.0201062  0.0436902  0.0125259  -0.0105027  -0.0309488  -0.0127671  0.0162675  0.029198  -0.0102731  0.0240213  0.0148558  0.0363599  -0.00908845  0.0236269  -0.658073  -0.037224  -0.027796  -0.0266659  0.015092  0.0205006  -0.0017057  -0.000635704  0.0064006  -0.00600652  0.0114059  0.0095151  -0.00576735  0.000431001  0.0133164  -0.00127643  -0.0161877  -0.0307933  -0.00498206  0.0224846  -0.00615687  -0.0385601  0.012188  0.0299795  -0.0236356  -0.0146849  0.00925003  0.0273043  -0.0359587  0.0432805  -0.00334887  0.0359146  -0.0211981  0.0211177  0.0214016  0.0179431  -0.0201062  0.0436902  0.0125259  -0.0105027  -0.0309488  -0.0127671  0.0162675  0.029198  -0.0102731  0.0240213  0.0148558  0.0363599  -0.00908845  0.0236269  -0.658073  -0.0346177  -0.0258498  -0.0247988  0.0140353  0.0190652  -0.00158627  -0.000591194  0.00595245  -0.00558597  0.0106073  0.00884888  -0.00536354  0.000400824  0.012384  -0.00118706  -0.0150543  -0.0286373  -0.00463324  0.0209103  -0.00572578  -0.0358602  0.0113346  0.0278804  -0.0219807  -0.0136567  0.00860237  0.0253925  -0.033441  0.0402502  -0.00311439  0.0333999  -0.0197139  0.0196391  0.0199032  0.0166868  -0.0186985  0.0406312  0.0116488  -0.00976735  -0.0287818  -0.0118732  0.0151285  0.0271537  -0.0095538  0.0223394  0.0138156  0.0338141  -0.00845211  0.0219726  0  -0.0346177  -0.0258498  -0.0247988  0.0140353  0.0190652  -0.00158627  -0.000591194  0.00595245  -0.00558597  0.0106073  0.00884888  -0.00536354  0.000400824  0.012384  -0.00118706  -0.0150543  -0.0286373  -0.00463324  0.0209103  -0.00572578  -0.0358602  0.0113346  0.0278804  -0.0219807  -0.0136567  0.00860237  0.0253925  -0.033441  0.0402502  -0.00311439  0.0333999  -0.0197139  0.0196391  0.0199032  0.0166868  -0.0186985  0.0406312  0.0116488  -0.00976735  -0.0287818  -0.0118732  0.0151285  0.0271537  -0.0095538  0.0223394  0.0138156  0.0338141  -0.00845211  0.0219726  0  -0.0346177  -0.0258498  -0.0247988  0.0140353  0.0190652  -0.00158627  -0.000591194  0.00595245  -0.00558597  0.0106073  0.00884888  -0.00536354  0.000400824  0.012384  -0.00118706  -0.0150543  -0.0286373  -0.00463324  0.0209103  -0.00572578  -0.0358602  0.0113346  0.0278804  -0.0219807  -0.0136567  0.00860237  0.0253925  -0.033441  0.0402502  -0.00311439  0.0333999  -0.0197139  0.0196391  0.0199032  0.0166868  -0.0186985  0.0406312  0.0116488  -0.00976735  -0.0287818  -0.0118732  0.0151285  0.0271537  -0.0095538  0.0223394  0.0138156  0.0338141  -0.00845211  0.0219726  0  -0.0346177  -0.0258498  -0.0247988  0.0140353  0.0190652  -0.00158627  -0.000591194  0.00595245  -0.00558597  0.0106073  0.00884888  -0.00536354  0.000400824  0.012384  -0.00118706  -0.0150543  -0.0286373  -0.00463324  0.0209103  -0.00572578  -0.0358602  0.0113346  0.0278804  -0.0219807  -0.0136567  0.00860237  0.0253925  -0.033441  0.0402502  -0.00311439  0.0333999  -0.0197139  0.0196391  0.0199032  0.0166868  -0.0186985  0.0406312  0.0116488  -0.00976735  -0.0287818  -0.0118732  0.0151285  0.0271537  -0.0095538  0.0223394  0.0138156  0.0338141  -0.00845211  0.0219726  0  -0.0346177  -0.0258498  -0.0247988  0.0140353  0.0190652  -0.00158627  -0.000591194  0.00595245  -0.00558597  0.0106073  0.00884888  -0.00536354  0.000400824  0.012384  -0.00118706  -0.0150543  -0.0286373  -0.00463324  0.0209103  -0.00572578  -0.0358602  0.0113346  0.0278804  -0.0219807  -0.0136567  0.00860237  0.0253925  -0.033441  0.0402502  -0.00311439  0.0333999  -0.0197139  0.0196391  0.0199032  0.0166868  -0.0186985  0.0406312  0.0116488  -0.00976735  -0.0287818  -0.0118732  0.0151285  0.0271537  -0.0095538  0.0223394  0.0138156  0.0338141  -0.00845211  0.0219726  0  -0.0346177  -0.0258498  -0.0247988  0.0140353  0.0190652  -0.00158627  -0.000591194  0.00595245  -0.00558597  0.0106073  0.00884888  -0.00536354  0.000400824  0.012384  -0.00118706  -0.0150543  -0.0286373  -0.00463324  0.0209103  -0.00572578  -0.0358602  0.0113346  0.0278804  -0.0219807  -0.0136567  0.00860237  0.0253925  -0.033441  0.0402502  -0.00311439  0.0333999  -0.0197139  0.0196391  0.0199032  0.0166868  -0.0186985  0.0406312  0.0116488  -0.00976735  -0.0287818  -0.0118732  0.0151285  0.0271537  -0.0095538  0.0223394  0.0138156  0.0338141  -0.00845211  0.0219726  0  -0.0346177  -0.0258498  -0.0247988  0.0140353  0.0190652  -0.00158627  -0.000591194  0.00595245  -0.00558597  0.0106073  0.00884888  -0.00536354  0.000400824  0.012384  -0.00118706  -0.0150543  -0.0286373  -0.00463324  0.0209103  -0.00572578  -0.0358602  0.0113346  0.0278804  -0.0219807  -0.0136567  0.00860237  0.0253925  -0.033441  0.0402502  -0.00311439  0.0333999  -0.0197139  0.0196391  0.0199032  0.0166868  -0.0186985  0.0406312  0.0116488  -0.00976735  -0.0287818  -0.0118732  0.0151285  0.0271537  -0.0095538  0.0223394  0.0138156  0.0338141  -0.00845211  0.0219726  0  -0.0346177  -0.0258498  -0.0247988  0.0140353  0.0190652  -0.00158627  -0.000591194  0.00595245  -0.00558597  0.0106073  0.00884888  -0.00536354  0.000400824  0.012384  -0.00118706  -0.0150543  -0.0286373  -0.00463324  0.0209103  -0.00572578  -0.0358602  0.0113346  0.0278804  -0.0219807  -0.0136567  0.00860237  0.0253925  -0.033441  0.0402502  -0.00311439  0.0333999  -0.0197139  0.0196391  0.0199032  0.0166868  -0.0186985  0.0406312  0.0116488  -0.00976735  -0.0287818  -0.0118732  0.0151285  0.0271537  -0.0095538  0.0223394  0.0138156  0.0338141  -0.00845211  0.0219726  0  -0.0346177  -0.0258498  -0.0247988  0.0140353  0.0190652  -0.00158627  -0.000591194  0.00595245  -0.00558597  0.0106073  0.00884888  -0.00536354  0.000400824  0.012384  -0.00118706  -0.0150543  -0.0286373  -0.00463324  0.0209103  -0.00572578  -0.0358602  0.0113346  0.0278804  -0.0219807  -0.0136567  0.00860237  0.0253925  -0.033441  0.0402502  -0.00311439  0.0333999  -0.0197139  0.0196391  0.0199032  0.0166868  -0.0186985  0.0406312  0.0116488  -0.00976735  -0.0287818  -0.0118732  0.0151285  0.0271537  -0.0095538  0.0223394  0.0138156  0.0338141  -0.00845211  0.0219726  0  -0.0346177  -0.0258498  -0.0247988  0.0140353  0.0190652  -0.00158627  -0.000591194  0.00595245  -0.00558597  0.0106073  0.00884888  -0.00536354  0.000400824  0.012384  -0.00118706  -0.0150543  -0.0286373  -0.00463324  0.0209103  -0.00572578  -0.0358602  0.0113346  0.0278804  -0.0219807  -0.0136567  0.00860237  0.0253925  -0.033441  0.0402502  -0.00311439  0.0333999  -0.0197139  0.0196391  0.0199032  0.0166868  -0.0186985  0.0406312  0.0116488  -0.00976735  -0.0287818  -0.0118732  0.0151285  0.0271537  -0.0095538  0.0223394  0.0138156  0.0338141  -0.00845211  0.0219726  0  -0.0346177  -0.0258498  -0.0247988  0.0140353  0.0190652  -0.00158627  -0.000591194  0.00595245  -0.00558597  0.0106073  0.00884888  -0.00536354  0.000400824  0.012384  -0.00118706  -0.0150543  -0.0286373  -0.00463324  0.0209103  -0.00572578  -0.0358602  0.0113346  0.0278804  -0.0219807  -0.0136567  0.00860237  0.0253925  -0.033441  0.0402502  -0.00311439  0.0333999  -0.0197139  0.0196391  0.0199032  0.0166868  -0.0186985  0.0406312  0.0116488  -0.00976735  -0.0287818  -0.0118732  0.0151285  0.0271537  -0.0095538  0.0223394  0.0138156  0.0338141  -0.00845211  0.0219726  0  -0.0346177  -0.0258498  -0.0247988  0.0140353  0.0190652  -0.00158627  -0.000591194  0.00595245  -0.00558597  0.0106073  0.00884888  -0.00536354  0.000400824  0.012384  -0.00118706  -0.0150543  -0.0286373  -0.00463324  0.0209103  -0.00572578  -0.0358602  0.0113346  0.0278804  -0.0219807  -0.0136567  0.00860237  0.0253925  -0.033441  0.0402502  -0.00311439  0.0333999  -0.0197139  0.0196391  0.0199032  0.0166868  -0.0186985  0.0406312  0.0116488  -0.00976735  -0.0287818  -0.0118732  0.0151285  0.0271537  -0.0095538  0.0223394  0.0138156  0.0338141  -0.00845211  0.0219726  0  -0.0346177  -0.0258498  -0.0247988  0.0140353  0.0190652  -0.00158627  -0.000591194  0.00595245  -0.00558597  0.0106073  0.00884888  -0.00536354  0.000400824  0.012384  -0.00118706  -0.0150543  -0.0286373  -0.00463324  0.0209103  -0.00572578  -0.0358602  0.0113346  0.0278804  -0.0219807  -0.0136567  0.00860237  0.0253925  -0.033441  0.0402502  -0.00311439  0.0333999  -0.0197139  0.0196391  0.0199032  0.0166868  -0.0186985  0.0406312  0.0116488  -0.00976735  -0.0287818  -0.0118732  0.0151285  0.0271537  -0.0095538  0.0223394  0.0138156  0.0338141  -0.00845211  0.0219726  0  -0.0346177  -0.0258498  -0.0247988  0.0140353  0.0190652  -0.00158627  -0.000591194  0.00595245  -0.00558597  0.0106073  0.00884888  -0.00536354  0.000400824  0.012384  -0.00118706  -0.0150543  -0.0286373  -0.00463324  0.0209103  -0.00572578  -0.0358602  0.0113346  0.0278804  -0.0219807  -0.0136567  0.00860237  0.0253925  -0.033441  0.0402502  -0.00311439  0.0333999  -0.0197139  0.0196391  0.0199032  0.0166868  -0.0186985  0.0406312  0.0116488  -0.00976735  -0.0287818  -0.0118732  0.0151285  0.0271537  -0.0095538  0.0223394  0.0138156  0.0338141  -0.00845211  0.0219726  0  0.0629006  0.0629006  0.0742596  0.0629006  0.0629006  0.0742596  0.0629006  0.0629006  0.0742596  0.0629006  0.0629006  0.0742596  0.0742596  0.0629006  0.0629006  0.0693405  0.0693405  0.0693405  0.0693405  0.0693405  0.0693405  0.0693405  0.0693405  0.0693405  0.0693405  0.0693405  0.0693405  0.0693405  0.0693405  -0.718267  0.0629006  0.0629006  0.0742596  0.0629006  0.0629006  0.0742596  0.0629006  0.0629006  0.0742596  0.0629006  0.0629006  0.0742596  0.0742596  0.0629006  0.0629006  0.0693405  0.0693405  0.0693405  0.0693405  0.0693405  0.0693405  0.0693405  0.0693405  0.0693405  0.0693405  0.0693405  0.0693405  0.0693405  0.0693405  -0.718267  0.0545926  0.0545926  0.0646856  0.0545926  0.0545926  0.0646856  0.0545926  0.0545926  0.0646856  0.0545926  0.0545926  0.0646856  0.0646856  0.0545926  0.0545926  0.0602333  0.0602333  0.0602333  0.0602333  0.0602333  0.0602333  0.0602333  0.0602333  0.0602333  0.0602333  0.0602333  0.0602333  0.0602333  0.0602333  0.564182  0.0629006  0.0629006  0.0742596  0.0629006  0.0629006  0.0742596  0.0629006  0.0629006  0.0742596  0.0629006  0.0629006  0.0742596  0.0742596  0.0629006  0.0629006  0.0693405  0.0693405  0.0693405  0.0693405  0.0693405  0.0693405  0.0693405  0.0693405  0.0693405  0.0693405  0.0693405  0.0693405  0.0693405  0.0693405  -0.718267  0.0629006  0.0629006  0.0742596  0.0629006  0.0629006  0.0742596  0.0629006  0.0629006  0.0742596  0.0629006  0.0629006  0.0742596  0.0742596  0.0629006  0.0629006  0.0693405  0.0693405  0.0693405  0.0693405  0.0693405  0.0693405  0.0693405  0.0693405  0.0693405  0.0693405  0.0693405  0.0693405  0.0693405  0.0693405  -0.718267  0.0545926  0.0545926  0.0646856  0.0545926  0.0545926  0.0646856  0.0545926  0.0545926  0.0646856  0.0545926  0.0545926  0.0646856  0.0646856  0.0545926  0.0545926  0.0602333  0.0602333  0.0602333  0.0602333  0.0602333  0.0602333  0.0602333  0.0602333  0.0602333  0.0602333  0.0602333  0.0602333  0.0602333  0.0602333  0.564182  0.0629006  0.0629006  0.0742596  0.0629006  0.0629006  0.0742596  0.0629006  0.0629006  0.0742596  0.0629006  0.0629006  0.0742596  0.0742596  0.0629006  0.0629006  0.0693405  0.0693405  0.0693405  0.0693405  0.0693405  0.0693405  0.0693405  0.0693405  0.0693405  0.0693405  0.0693405  0.0693405  0.0693405  0.0693405  -0.718267  0.0629006  0.0629006  0.0742596  0.0629006  0.0629006  0.0742596  0.0629006  0.0629006  0.0742596  0.0629006  0.0629006  0.0742596  0.0742596  0.0629006  0.0629006  0.0693405  0.0693405  0.0693405  0.0693405  0.0693405  0.0693405  0.0693405  0.0693405  0.0693405  0.0693405  0.0693405  0.0693405  0.0693405  0.0693405  -0.718267  0.0545926  0.0545926  0.0646856  0.0545926  0.0545926  0.0646856  0.0545926  0.0545926  0.0646856  0.0545926  0.0545926  0.0646856  0.0646856  0.0545926  0.0545926  0.0602333  0.0602333  0.0602333  0.0602333  0.0602333  0.0602333  0.0602333  0.0602333  0.0602333  0.0602333  0.0602333  0.0602333  0.0602333  0.0602333  0.564182  0.0629006  0.0629006  0.0742596  0.0629006  0.0629006  0.0742596  0.0629006  0.0629006  0.0742596  0.0629006  0.0629006  0.0742596  0.0742596  0.0629006  0.0629006  0.0693405  0.0693405  0.0693405  0.0693405  0.0693405  0.0693405  0.0693405  0.0693405  0.0693405  0.0693405  0.0693405  0.0693405  0.0693405  0.0693405  -0.718267  0.0629006  0.0629006  0.0742596  0.0629006  0.0629006  0.0742596  0.0629006  0.0629006  0.0742596  0.0629006  0.0629006  0.0742596  0.0742596  0.0629006  0.0629006  0.0693405  0.0693405  0.0693405  0.0693405  0.0693405  0.0693405  0.0693405  0.0693405  0.0693405  0.0693405  0.0693405  0.0693405  0.0693405  0.0693405  -0.718267  0.0545926  0.0545926  0.0646856  0.0545926  0.0545926  0.0646856  0.0545926  0.0545926  0.0646856  0.0545926  0.0545926  0.0646856  0.0646856  0.0545926  0.0545926  0.0602333  0.0602333  0.0602333  0.0602333  0.0602333  0.0602333  0.0602333  0.0602333  0.0602333  0.0602333  0.0602333  0.0602333  0.0602333  0.0602333  0.564182  0.0545926  0.0545926  0.0646856  0.0545926  0.0545926  0.0646856  0.0545926  0.0545926  0.0646856  0.0545926  0.0545926  0.0646856  0.0646856  0.0545926  0.0545926  0.0602333  0.0602333  0.0602333  0.0602333  0.0602333  0.0602333  0.0602333  0.0602333  0.0602333  0.0602333  0.0602333  0.0602333  0.0602333  0.0602333  0.564182  0.0629006  0.0629006  0.0742596  0.0629006  0.0629006  0.0742596  0.0629006  0.0629006  0.0742596  0.0629006  0.0629006  0.0742596  0.0742596  0.0629006  0.0629006  0.0693405  0.0693405  0.0693405  0.0693405  0.0693405  0.0693405  0.0693405  0.0693405  0.0693405  0.0693405  0.0693405  0.0693405  0.0693405  0.0693405  -0.718267  0.0629006  0.0629006  0.0742596  0.0629006  0.0629006  0.0742596  0.0629006  0.0629006  0.0742596  0.0629006  0.0629006  0.0742596  0.0742596  0.0629006  0.0629006  0.0693405  0.0693405  0.0693405  0.0693405  0.0693405  0.0693405  0.0693405  0.0693405  0.0693405  0.0693405  0.0693405  0.0693405  0.0693405  0.0693405  -0.718267  0.0591455  0.0591455  0.069985  0.0591455  0.0591455  0.069985  0.0591455  0.0591455  0.069985  0.0591455  0.0591455  0.069985  0.069985  0.0591455  0.0591455  0.0652459  0.0652459  0.0652459  0.0652459  0.0652459  0.0652459  0.0652459  0.0652459  0.0652459  0.0652459  0.0652459  0.0652459  0.0652459  0.0652459  0  0.0591455  0.0591455  0.069985  0.0591455  0.0591455  0.069985  0.0591455  0.0591455  0.069985  0.0591455  0.0591455  0.069985  0.069985  0.0591455  0.0591455  0.0652459  0.0652459  0.0652459  0.0652459  0.0652459  0.0652459  0.0652459  0.0652459  0.0652459  0.0652459  0.0652459  0.0652459  0.0652459  0.0652459  0  0.0591455  0.0591455  0.069985  0.0591455  0.0591455  0.069985  0.0591455  0.0591455  0.069985  0.0591455  0.0591455  0.069985  0.069985  0.0591455  0.0591455  0.0652459  0.0652459  0.0652459  0.0652459  0.0652459  0.0652459  0.0652459  0.0652459  0.0652459  0.0652459  0.0652459  0.0652459  0.0652459  0.0652459  0  0.0591455  0.0591455  0.069985  0.0591455  0.0591455  0.069985  0.0591455  0.0591455  0.069985  0.0591455  0.0591455  0.069985  0.069985  0.0591455  0.0591455  0.0652459  0.0652459  0.0652459  0.0652459  0.0652459  0.0652459  0.0652459  0.0652459  0.0652459  0.0652459  0.0652459  0.0652459  0.0652459  0.0652459  0  -0.190751  -0.190751  -0.221172  -0.190751  -0.190751  -0.221172  -0.190751  -0.190751  -0.221172  -0.190751  -0.190751  -0.221172  -0.221172  -0.190751  -0.190751  -0.207574  -0.207574  -0.207574  -0.207574  -0.352872  -0.190751  -0.190751  -0.221172  -0.190751  -0.190751  -0.221172  -0.190751  -0.190751  -0.221172  -0.190751  -0.190751  -0.221172  -0.221172  -0.190751  -0.190751  -0.207574  -0.207574  -0.207574  -0.207574  -0.352872  0.190751  0.190751  0.221172  0.190751  0.190751  0.221172  0.190751  0.190751  0.221172  0.190751  0.190751  0.221172  0.221172  0.190751  0.190751  0.207574  0.207574  0.207574  0.207574  0.352872  -0.190751  -0.190751  -0.221172  -0.190751  -0.190751  -0.221172  -0.190751  -0.190751  -0.221172  -0.190751  -0.190751  -0.221172  -0.221172  -0.190751  -0.190751  -0.207574  -0.207574  -0.207574  -0.207574  -0.352872  -0.190751  -0.190751  -0.221172  -0.190751  -0.190751  -0.221172  -0.190751  -0.190751  -0.221172  -0.190751  -0.190751  -0.221172  -0.221172  -0.190751  -0.190751  -0.207574  -0.207574  -0.207574  -0.207574  -0.352872  0.190751  0.190751  0.221172  0.190751  0.190751  0.221172  0.190751  0.190751  0.221172  0.190751  0.190751  0.221172  0.221172  0.190751  0.190751  0.207574  0.207574  0.207574  0.207574  0.352872  -0.190751  -0.190751  -0.221172  -0.190751  -0.190751  -0.221172  -0.190751  -0.190751  -0.221172  -0.190751  -0.190751  -0.221172  -0.221172  -0.190751  -0.190751  -0.207574  -0.207574  -0.207574  -0.207574  -0.352872  -0.190751  -0.190751  -0.221172  -0.190751  -0.190751  -0.221172  -0.190751  -0.190751  -0.221172  -0.190751  -0.190751  -0.221172  -0.221172  -0.190751  -0.190751  -0.207574  -0.207574  -0.207574  -0.207574  -0.352872  0.190751  0.190751  0.221172  0.190751  0.190751  0.221172  0.190751  0.190751  0.221172  0.190751  0.190751  0.221172  0.221172  0.190751  0.190751  0.207574  0.207574  0.207574  0.207574  0.352872  -0.190751  -0.190751  -0.221172  -0.190751  -0.190751  -0.221172  -0.190751  -0.190751  -0.221172  -0.190751  -0.190751  -0.221172  -0.221172  -0.190751  -0.190751  -0.207574  -0.207574  -0.207574  -0.207574  -0.352872  -0.190751  -0.190751  -0.221172  -0.190751  -0.190751  -0.221172  -0.190751  -0.190751  -0.221172  -0.190751  -0.190751  -0.221172  -0.221172  -0.190751  -0.190751  -0.207574  -0.207574  -0.207574  -0.207574  -0.352872  0.190751  0.190751  0.221172  0.190751  0.190751  0.221172  0.190751  0.190751  0.221172  0.190751  0.190751  0.221172  0.221172  0.190751  0.190751  0.207574  0.207574  0.207574  0.207574  0.352872  0.190751  0.190751  0.221172  0.190751  0.190751  0.221172  0.190751  0.190751  0.221172  0.190751  0.190751  0.221172  0.221172  0.190751  0.190751  0.207574  0.207574  0.207574  0.207574  0.352872  -0.190751  -0.190751  -0.221172  -0.190751  -0.190751  -0.221172  -0.190751  -0.190751  -0.221172  -0.190751  -0.190751  -0.221172  -0.221172  -0.190751  -0.190751  -0.207574  -0.207574  -0.207574  -0.207574  -0.352872  